<?xml version="1.0"?>
<opencv_storage>
<cascade>
  <stageType>BOOST</stageType>
  <featureType>HAAR</featureType>
  <height>24</height>
  <width>24</width>
  <stageParams>
    <boostType>GAB</boostType>
    <minHitRate>9.9500000476837158e-01</minHitRate>
    <maxFalseAlarm>5.0000000000000000e-01</maxFalseAlarm>
    <weightTrimRate>9.4999998807907104e-01</weightTrimRate>
    <maxDepth>1</maxDepth>
    <maxWeakCount>100</maxWeakCount></stageParams>
  <featureParams>
    <maxCatCount>0</maxCatCount>
    <featSize>1</featSize>
    <mode>BASIC</mode></featureParams>
  <stageNum>9</stageNum>
  <stages>
    <!-- stage 0 -->
    <_>
      <maxWeakCount>2</maxWeakCount>
      <stageThreshold>-6.5280281007289886e-02</stageThreshold>
      <weakClassifiers>
        <_>
          <internalNodes>
            0 -1 17 -1.8555882573127747e-01</internalNodes>
          <leafValues>
            9.8265898227691650e-01 -9.9599599838256836e-01</leafValues></_>
        <_>
          <internalNodes>
            0 -1 21 5.0230085849761963e-02</internalNodes>
          <leafValues>
            -1. 9.3071573972702026e-01</leafValues></_></weakClassifiers></_>
    <!-- stage 1 -->
    <_>
      <maxWeakCount>3</maxWeakCount>
      <stageThreshold>-1.2718850374221802e+00</stageThreshold>
      <weakClassifiers>
        <_>
          <internalNodes>
            0 -1 16 -3.1813496351242065e-01</internalNodes>
          <leafValues>
            9.3567252159118652e-01 -9.7208374738693237e-01</leafValues></_>
        <_>
          <internalNodes>
            0 -1 3 -2.3142829537391663e-02</internalNodes>
          <leafValues>
            7.6242560148239136e-01 -9.0940350294113159e-01</leafValues></_>
        <_>
          <internalNodes>
            0 -1 8 -2.9102790355682373e-01</internalNodes>
          <leafValues>
            6.0960227251052856e-01 -9.7013407945632935e-01</leafValues></_></weakClassifiers></_>
    <!-- stage 2 -->
    <_>
      <maxWeakCount>3</maxWeakCount>
      <stageThreshold>-1.2819899320602417e+00</stageThreshold>
      <weakClassifiers>
        <_>
          <internalNodes>
            0 -1 26 4.3460994958877563e-02</internalNodes>
          <leafValues>
            -9.0409588813781738e-01 7.2674417495727539e-01</leafValues></_>
        <_>
          <internalNodes>
            0 -1 18 4.0981121361255646e-02</internalNodes>
          <leafValues>
            -9.7337299585342407e-01 5.1945352554321289e-01</leafValues></_>
        <_>
          <internalNodes>
            0 -1 10 -3.2129335403442383e-01</internalNodes>
          <leafValues>
            6.3788849115371704e-01 -8.9734762907028198e-01</leafValues></_></weakClassifiers></_>
    <!-- stage 3 -->
    <_>
      <maxWeakCount>2</maxWeakCount>
      <stageThreshold>-4.2926025390625000e-01</stageThreshold>
      <weakClassifiers>
        <_>
          <internalNodes>
            0 -1 25 -4.9016002565622330e-02</internalNodes>
          <leafValues>
            7.2937291860580444e-01 -8.4069097042083740e-01</leafValues></_>
        <_>
          <internalNodes>
            0 -1 6 6.9047093391418457e-02</internalNodes>
          <leafValues>
            -9.6451711654663086e-01 4.1143071651458740e-01</leafValues></_></weakClassifiers></_>
    <!-- stage 4 -->
    <_>
      <maxWeakCount>5</maxWeakCount>
      <stageThreshold>-1.4628728628158569e+00</stageThreshold>
      <weakClassifiers>
        <_>
          <internalNodes>
            0 -1 14 -4.0401339530944824e-01</internalNodes>
          <leafValues>
            5.0351285934448242e-01 -9.4771242141723633e-01</leafValues></_>
        <_>
          <internalNodes>
            0 -1 12 -3.0085097998380661e-02</internalNodes>
          <leafValues>
            6.9698256254196167e-01 -7.1850341558456421e-01</leafValues></_>
        <_>
          <internalNodes>
            0 -1 11 -2.8869324922561646e-01</internalNodes>
          <leafValues>
            6.3346624374389648e-01 -6.6757971048355103e-01</leafValues></_>
        <_>
          <internalNodes>
            0 -1 27 -1.3692801818251610e-02</internalNodes>
          <leafValues>
            4.3228840827941895e-01 -8.5376244783401489e-01</leafValues></_>
        <_>
          <internalNodes>
            0 -1 4 -1.1813903227448463e-02</internalNodes>
          <leafValues>
            4.3863421678543091e-01 -7.1531808376312256e-01</leafValues></_></weakClassifiers></_>
    <!-- stage 5 -->
    <_>
      <maxWeakCount>4</maxWeakCount>
      <stageThreshold>-1.9979951381683350e+00</stageThreshold>
      <weakClassifiers>
        <_>
          <internalNodes>
            0 -1 13 6.5526865422725677e-02</internalNodes>
          <leafValues>
            -7.8363120555877686e-01 6.3120567798614502e-01</leafValues></_>
        <_>
          <internalNodes>
            0 -1 20 -8.9097041636705399e-03</internalNodes>
          <leafValues>
            3.3310243487358093e-01 -8.4533208608627319e-01</leafValues></_>
        <_>
          <internalNodes>
            0 -1 24 5.3806941956281662e-02</internalNodes>
          <leafValues>
            -7.2643381357192993e-01 4.2181852459907532e-01</leafValues></_>
        <_>
          <internalNodes>
            0 -1 5 1.6016766428947449e-02</internalNodes>
          <leafValues>
            -8.6941778659820557e-01 3.5740196704864502e-01</leafValues></_></weakClassifiers></_>
    <!-- stage 6 -->
    <_>
      <maxWeakCount>3</maxWeakCount>
      <stageThreshold>-8.5964238643646240e-01</stageThreshold>
      <weakClassifiers>
        <_>
          <internalNodes>
            0 -1 9 -2.4816599488258362e-01</internalNodes>
          <leafValues>
            7.6315790414810181e-01 -7.4216651916503906e-01</leafValues></_>
        <_>
          <internalNodes>
            0 -1 0 -2.7949130535125732e-01</internalNodes>
          <leafValues>
            3.6753705143928528e-01 -9.0731471776962280e-01</leafValues></_>
        <_>
          <internalNodes>
            0 -1 15 9.1823935508728027e-03</internalNodes>
          <leafValues>
            -4.8501294851303101e-01 8.3750313520431519e-01</leafValues></_></weakClassifiers></_>
    <!-- stage 7 -->
    <_>
      <maxWeakCount>2</maxWeakCount>
      <stageThreshold>-5.0882989168167114e-01</stageThreshold>
      <weakClassifiers>
        <_>
          <internalNodes>
            0 -1 2 -3.7392213940620422e-02</internalNodes>
          <leafValues>
            5.6065571308135986e-01 -7.9423075914382935e-01</leafValues></_>
        <_>
          <internalNodes>
            0 -1 1 -8.6245685815811157e-02</internalNodes>
          <leafValues>
            2.8540086746215820e-01 -9.7677201032638550e-01</leafValues></_></weakClassifiers></_>
    <!-- stage 8 -->
    <_>
      <maxWeakCount>4</maxWeakCount>
      <stageThreshold>-1.1583731174468994e+00</stageThreshold>
      <weakClassifiers>
        <_>
          <internalNodes>
            0 -1 7 -3.8948667049407959e-01</internalNodes>
          <leafValues>
            1.6796875000000000e-01 -8.8955581188201904e-01</leafValues></_>
        <_>
          <internalNodes>
            0 -1 22 8.1553608179092407e-03</internalNodes>
          <leafValues>
            -6.4947193861007690e-01 5.7106083631515503e-01</leafValues></_>
        <_>
          <internalNodes>
            0 -1 23 9.1476729721762240e-05</internalNodes>
          <leafValues>
            -9.8310935497283936e-01 2.7603900432586670e-01</leafValues></_>
        <_>
          <internalNodes>
            0 -1 19 -3.6477404646575451e-03</internalNodes>
          <leafValues>
            -9.5290893316268921e-01 2.6628869771957397e-01</leafValues></_></weakClassifiers></_></stages>
  <features>
    <_>
      <rects>
        <_>
          0 9 20 15 -1.</_>
        <_>
          0 14 20 5 3.</_></rects>
      <tilted>0</tilted></_>
    <_>
      <rects>
        <_>
          1 15 21 6 -1.</_>
        <_>
          8 15 7 6 3.</_></rects>
      <tilted>0</tilted></_>
    <_>
      <rects>
        <_>
          2 8 14 4 -1.</_>
        <_>
          2 8 7 2 2.</_>
        <_>
          9 10 7 2 2.</_></rects>
      <tilted>0</tilted></_>
    <_>
      <rects>
        <_>
          2 15 10 2 -1.</_>
        <_>
          7 15 5 2 2.</_></rects>
      <tilted>0</tilted></_>
    <_>
      <rects>
        <_>
          5 7 4 10 -1.</_>
        <_>
          5 7 2 5 2.</_>
        <_>
          7 12 2 5 2.</_></rects>
      <tilted>0</tilted></_>
    <_>
      <rects>
        <_>
          6 3 14 7 -1.</_>
        <_>
          13 3 7 7 2.</_></rects>
      <tilted>0</tilted></_>
    <_>
      <rects>
        <_>
          6 6 16 14 -1.</_>
        <_>
          14 6 8 14 2.</_></rects>
      <tilted>0</tilted></_>
    <_>
      <rects>
        <_>
          7 7 13 15 -1.</_>
        <_>
          7 12 13 5 3.</_></rects>
      <tilted>0</tilted></_>
    <_>
      <rects>
        <_>
          8 5 11 18 -1.</_>
        <_>
          8 11 11 6 3.</_></rects>
      <tilted>0</tilted></_>
    <_>
      <rects>
        <_>
          8 6 11 10 -1.</_>
        <_>
          8 11 11 5 2.</_></rects>
      <tilted>0</tilted></_>
    <_>
      <rects>
        <_>
          8 8 11 15 -1.</_>
        <_>
          8 13 11 5 3.</_></rects>
      <tilted>0</tilted></_>
    <_>
      <rects>
        <_>
          9 0 10 20 -1.</_>
        <_>
          9 10 10 10 2.</_></rects>
      <tilted>0</tilted></_>
    <_>
      <rects>
        <_>
          9 3 10 6 -1.</_>
        <_>
          9 5 10 2 3.</_></rects>
      <tilted>0</tilted></_>
    <_>
      <rects>
        <_>
          9 6 10 6 -1.</_>
        <_>
          9 8 10 2 3.</_></rects>
      <tilted>0</tilted></_>
    <_>
      <rects>
        <_>
          9 6 10 18 -1.</_>
        <_>
          9 12 10 6 3.</_></rects>
      <tilted>0</tilted></_>
    <_>
      <rects>
        <_>
          9 7 4 3 -1.</_>
        <_>
          9 8 4 1 3.</_></rects>
      <tilted>0</tilted></_>
    <_>
      <rects>
        <_>
          10 6 8 18 -1.</_>
        <_>
          10 12 8 6 3.</_></rects>
      <tilted>0</tilted></_>
    <_>
      <rects>
        <_>
          11 7 8 15 -1.</_>
        <_>
          11 12 8 5 3.</_></rects>
      <tilted>0</tilted></_>
    <_>
      <rects>
        <_>
          11 15 12 4 -1.</_>
        <_>
          17 15 6 4 2.</_></rects>
      <tilted>0</tilted></_>
    <_>
      <rects>
        <_>
          11 16 6 3 -1.</_>
        <_>
          13 16 2 3 3.</_></rects>
      <tilted>0</tilted></_>
    <_>
      <rects>
        <_>
          12 12 1 9 -1.</_>
        <_>
          12 15 1 3 3.</_></rects>
      <tilted>0</tilted></_>
    <_>
      <rects>
        <_>
          14 6 10 12 -1.</_>
        <_>
          14 6 5 6 2.</_>
        <_>
          19 12 5 6 2.</_></rects>
      <tilted>0</tilted></_>
    <_>
      <rects>
        <_>
          14 8 6 3 -1.</_>
        <_>
          16 8 2 3 3.</_></rects>
      <tilted>0</tilted></_>
    <_>
      <rects>
        <_>
          15 17 2 1 -1.</_>
        <_>
          16 17 1 1 2.</_></rects>
      <tilted>0</tilted></_>
    <_>
      <rects>
        <_>
          16 1 6 22 -1.</_>
        <_>
          16 1 3 11 2.</_>
        <_>
          19 12 3 11 2.</_></rects>
      <tilted>0</tilted></_>
    <_>
      <rects>
        <_>
          16 7 2 10 -1.</_>
        <_>
          16 12 2 5 2.</_></rects>
      <tilted>0</tilted></_>
    <_>
      <rects>
        <_>
          16 7 6 10 -1.</_>
        <_>
          16 7 3 5 2.</_>
        <_>
          19 12 3 5 2.</_></rects>
      <tilted>0</tilted></_>
    <_>
      <rects>
        <_>
          16 14 8 6 -1.</_>
        <_>
          16 14 4 3 2.</_>
        <_>
          20 17 4 3 2.</_></rects>
      <tilted>0</tilted></_></features></cascade>
</opencv_storage>
